FANN_FLO_2.1
num_layers=3
learning_rate=0.700000
connection_rate=1.000000
network_type=0
learning_momentum=0.000000
training_algorithm=2
train_error_function=1
train_stop_function=0
cascade_output_change_fraction=0.010000
quickprop_decay=-0.000100
quickprop_mu=1.750000
rprop_increase_factor=1.200000
rprop_decrease_factor=0.500000
rprop_delta_min=0.000000
rprop_delta_max=50.000000
rprop_delta_zero=0.100000
cascade_output_stagnation_epochs=12
cascade_candidate_change_fraction=0.010000
cascade_candidate_stagnation_epochs=12
cascade_max_out_epochs=150
cascade_min_out_epochs=50
cascade_max_cand_epochs=150
cascade_min_cand_epochs=50
cascade_num_candidate_groups=2
bit_fail_limit=3.49999999999999977796e-01
cascade_candidate_limit=1.00000000000000000000e+03
cascade_weight_multiplier=4.00000000000000022204e-01
cascade_activation_functions_count=10
cascade_activation_functions=3 5 7 8 10 11 14 15 16 17 
cascade_activation_steepnesses_count=4
cascade_activation_steepnesses=2.50000000000000000000e-01 5.00000000000000000000e-01 7.50000000000000000000e-01 1.00000000000000000000e+00 
layer_sizes=4 6 2 
scale_included=0
neurons (num_inputs, activation_function, activation_steepness)=(0, 0, 0.00000000000000000000e+00) (0, 0, 0.00000000000000000000e+00) (0, 0, 0.00000000000000000000e+00) (0, 0, 0.00000000000000000000e+00) (4, 5, 5.00000000000000000000e-01) (4, 5, 5.00000000000000000000e-01) (4, 5, 5.00000000000000000000e-01) (4, 5, 5.00000000000000000000e-01) (4, 5, 5.00000000000000000000e-01) (0, 5, 0.00000000000000000000e+00) (6, 3, 5.00000000000000000000e-01) (0, 3, 0.00000000000000000000e+00) 
connections (connected_to_neuron, weight)=(0, 6.99492332080654977133e-01) (1, 5.61493935462429205607e-01) (2, -2.47417924170218306301e+00) (3, 1.64586888830701139064e+00) (0, -1.82109090885878743826e+00) (1, -3.09358912698513621731e-01) (2, 3.67797876067721452031e+00) (3, 6.37589778935232409651e+00) (0, 1.14155539250024659736e+02) (1, 5.39791227492564189561e+01) (2, 4.17769057384763584650e+02) (3, -5.31441376534891332994e+02) (0, 8.40949946892406387633e+02) (1, 2.30857293620944625800e+00) (2, -8.36587542809520641640e+02) (3, -5.50478546410694278279e+01) (0, 3.69081536331191228939e+00) (1, -4.02739842400074377071e-01) (2, -8.85527858896809050293e+00) (3, 2.18540958258913811108e+01) (4, -5.06346709105713532750e+00) (5, 3.08607917578347334953e+00) (6, 2.13835244964018533764e+00) (7, 1.81660733689547382319e+00) (8, -1.82238967784716487941e+00) (9, 4.06711318579854808064e+00) 
